digraph Tree {
node [shape=box, style="filled, rounded", color="black", fontname="helvetica"] ;
edge [fontname="helvetica"] ;
0 [label="x1 <= 0.835\nsquared_error = 0.081\nsamples = 200\nvalue = 0.297", fillcolor="#f9e1d0"] ;
1 [label="x1 <= 0.181\nsquared_error = 0.061\nsamples = 171\nvalue = 0.231", fillcolor="#fbede2"] ;
0 -> 1 [labeldistance=2.5, labelangle=45, headlabel="True"] ;
2 [label="squared_error = 0.03\nsamples = 36\nvalue = 0.607", fillcolor="#eda977"] ;
1 -> 2 ;
3 [label="squared_error = 0.022\nsamples = 135\nvalue = 0.131", fillcolor="#ffffff"] ;
1 -> 3 ;
4 [label="x1 <= 0.93\nsquared_error = 0.026\nsamples = 29\nvalue = 0.684", fillcolor="#ea9b61"] ;
0 -> 4 [labeldistance=2.5, labelangle=-45, headlabel="False"] ;
5 [label="squared_error = 0.007\nsamples = 16\nvalue = 0.569", fillcolor="#efaf82"] ;
4 -> 5 ;
6 [label="squared_error = 0.012\nsamples = 13\nvalue = 0.825", fillcolor="#e58139"] ;
4 -> 6 ;
}